=== Run information ===

Scheme:       weka.classifiers.trees.REPTree -M 2 -V 0.001 -N 3 -S 1 -L -1 -I 0.0
Relation:     DNC Dataset Android 0511-0911 - Training Set-weka.filters.unsupervised.attribute.Remove-R4-9,18-weka.filters.unsupervised.attribute.Remove-R1-weka.filters.unsupervised.attribute.Remove-V-R5,8-9,11
Instances:    250
Attributes:   4
              LevelFailedEvents
              Sessions
              MKTExpenses
              ActiveUsersDay7
Test mode:    10-fold cross-validation

=== Classifier model (full training set) ===


REPTree
============

MKTExpenses < 77.24
|   Sessions < 5610.5
|   |   MKTExpenses < 11.82
|   |   |   LevelFailedEvents < 2524.5 : 662.33 (13/4485.01) [5/1336.96]
|   |   |   LevelFailedEvents >= 2524.5 : 909.5 (3/286.89) [1/1248.44]
|   |   MKTExpenses >= 11.82
|   |   |   Sessions < 4974.5
|   |   |   |   MKTExpenses < 49.72 : 1210.39 (23/135360.6) [21/300861.16]
|   |   |   |   MKTExpenses >= 49.72 : 1018.34 (34/16832.66) [22/84534.84]
|   |   |   Sessions >= 4974.5
|   |   |   |   LevelFailedEvents < 5528 : 1436.67 (2/5256.25) [1/3906.25]
|   |   |   |   LevelFailedEvents >= 5528 : 1245.5 (3/104.22) [1/1877.78]
|   Sessions >= 5610.5
|   |   LevelFailedEvents < 6533 : 1579.5 (2/1089) [2/23042]
|   |   LevelFailedEvents >= 6533 : 1984.5 (4/904.25) [0/0]
MKTExpenses >= 77.24
|   LevelFailedEvents < 3467.5 : 2339.53 (12/1767696.91) [5/1558512.07]
|   LevelFailedEvents >= 3467.5
|   |   Sessions < 6877
|   |   |   MKTExpenses < 117.19 : 1356.05 (30/41722.31) [12/51823.93]
|   |   |   MKTExpenses >= 117.19
|   |   |   |   MKTExpenses < 180.42
|   |   |   |   |   LevelFailedEvents < 3778 : 1626 (2/1722.25) [2/18211.25]
|   |   |   |   |   LevelFailedEvents >= 3778
|   |   |   |   |   |   Sessions < 4262.5 : 1416.25 (4/1275.19) [0/0]
|   |   |   |   |   |   Sessions >= 4262.5
|   |   |   |   |   |   |   LevelFailedEvents < 4284 : 1634.5 (2/1482.25) [0/0]
|   |   |   |   |   |   |   LevelFailedEvents >= 4284
|   |   |   |   |   |   |   |   Sessions < 6083 : 1486.64 (9/2205.28) [2/2164.94]
|   |   |   |   |   |   |   |   Sessions >= 6083 : 1567.25 (3/3122.67) [1/121]
|   |   |   |   MKTExpenses >= 180.42 : 1675.6 (7/7259.55) [3/388.45]
|   |   Sessions >= 6877 : 2051.68 (13/145061.61) [6/55481.85]

Size of the tree : 33

Time taken to build model: 0 seconds

=== Predictions on test data ===

    inst#     actual  predicted      error
        1   1537       1266       -271     
        2    768        795.286     27.286 
        3    643        668.75      25.75  
        4   1559       1494.375    -64.625 
        5    962       1176.786    214.786 
        6   1201       1176.786    -24.214 
        7   1683       1466.4     -216.6   
        8   1340       1391.267     51.267 
        9   1196       1045.413   -150.587 
       10    801       1045.413    244.413 
       11   1491       1494.375      3.375 
       12   1675       1556.714   -118.286 
       13   1272       2960.364   1688.364 
       14   2046       2814        768     
       15    969       1045.413     76.413 
       16    830        883.4       53.4   
       17   1278       1466.4      188.4   
       18   1833       1880.6       47.6   
       19    885       1176.786    291.786 
       20   2632       1176.786  -1455.214 
       21   1372       1440.143     68.143 
       22   1022       1176.786    154.786 
       23   1648       1880.6      232.6   
       24    459        883.4      424.4   
       25    961       1045.413     84.413 
        1   1406       1468.455     62.455 
        2   1336       1859        523     
        3    709        674.429    -34.571 
        4    973       1095.456    122.456 
        5   1476       1515.846     39.846 
        6    650        598.833    -51.167 
        7   1425       1459.143     34.143 
        8   1173       1515.846    342.846 
        9   2073       1095.456   -977.544 
       10   2171       1900.545   -270.455 
       11    988       1095.456    107.456 
       12   2264       1900.545   -363.455 
       13   1026       1095.456     69.456 
       14   3724       3193.6     -530.4   
       15   1009       1095.456     86.456 
       16   2344       1095.456  -1248.544 
       17   1549       1468.455    -80.545 
       18    816       1095.456    279.456 
       19   1625       1614.5      -10.5   
       20   1061       1095.456     34.456 
       21    899       1095.456    196.456 
       22   1110       1095.456    -14.544 
       23    585       1095.456    510.456 
       24    858       1095.456    237.456 
       25    959       1095.456    136.456 
        1   3746       2322.533  -1423.467 
        2   2422       1846.6     -575.4   
        3   1395       1404          9     
        4   1261        909.5     -351.5   
        5    815       1138.588    323.588 
        6   1201       1138.588    -62.412 
        7   1766       1522.333   -243.667 
        8   1188       2322.533   1134.533 
        9    871       1138.588    267.588 
       10    962       1138.588    176.588 
       11   1427       1522.333     95.333 
       12   1219       1138.588    -80.412 
       13   1001       1138.588    137.588 
       14    993       1138.588    145.588 
       15    665        747         82     
       16   1236       1138.588    -97.412 
       17   1125       1138.588     13.588 
       18    989       1138.588    149.588 
       19   1729       1522.333   -206.667 
       20    999       1138.588    139.588 
       21    919       1138.588    219.588 
       22   1565       1467.552    -97.448 
       23   1127       1138.588     11.588 
       24    602        631         29     
       25   1013       1138.588    125.588 
        1   2222       1081.183  -1140.817 
        2   1695       1479.2     -215.8   
        3   1540       1263.526   -276.474 
        4    866       1081.183    215.183 
        5   1525       1263.526   -261.474 
        6    956       1488.333    532.333 
        7   1185       1081.183   -103.817 
        8    883       1081.183    198.183 
        9   2070       1081.183   -988.817 
       10   1620       1636.429     16.429 
       11   1996       1980.667    -15.333 
       12   1273       1263.526     -9.474 
       13   2665       2049.1     -615.9   
       14   2963       2049.1     -913.9   
       15   1193       1081.183   -111.817 
       16   1182       1081.183   -100.817 
       17   1067       1081.183     14.183 
       18    817       1488.333    671.333 
       19   1897       1488.333   -408.667 
       20    750       1081.183    331.183 
       21   1188       1081.183   -106.817 
       22   1769       1479.2     -289.8   
       23    907       1081.183    174.183 
       24   1831       2049.1      218.1   
       25   1014       1081.183     67.183 
        1   1128       1222.319     94.319 
        2    603        606.667      3.667 
        3   1632       1706.074     74.074 
        4   1769       1706.074    -62.926 
        5   1511       1706.074    195.074 
        6   1538       1603.4       65.4   
        7   1399       1706.074    307.074 
        8   1300       1706.074    406.074 
        9   1570       1706.074    136.074 
       10   1565       1706.074    141.074 
       11   1416       1706.074    290.074 
       12   1228       1706.074    478.074 
       13    951       1061.8      110.8   
       14   1953       1706.074   -246.926 
       15    926       1061.8      135.8   
       16   1208       1706.074    498.074 
       17   1303       1706.074    403.074 
       18   3950       1706.074  -2243.926 
       19   1081       1061.8      -19.2   
       20   1253       1061.8     -191.2   
       21    950       1222.319    272.319 
       22   1620       1706.074     86.074 
       23    926       1061.8      135.8   
       24    688        653        -35     
       25   1182       1061.8     -120.2   
        1   1222       1132.094    -89.906 
        2   1530       1132.094   -397.906 
        3   1364       1151.833   -212.167 
        4   1356       1470.7      114.7   
        5   1165       1132.094    -32.906 
        6   1066       1132.094     66.094 
        7   1404       1575.517    171.517 
        8    877       1132.094    255.094 
        9   1690       1573       -117     
       10   1160       1132.094    -27.906 
       11   1596       1470.7     -125.3   
       12   1310       1319.286      9.286 
       13   1373       1470.7       97.7   
       14    998       1132.094    134.094 
       15   2016       1974        -42     
       16   1182       1010.125   -171.875 
       17   1118       1132.094     14.094 
       18   1542       1575.517     33.517 
       19   1422       1470.7       48.7   
       20   1071       1132.094     61.094 
       21   1151       1010.125   -140.875 
       22    917       1132.094    215.094 
       23    868       1132.094    264.094 
       24   1598       1575.517    -22.483 
       25   1091       1010.125    -80.875 
        1   1498       1525.261     27.261 
        2   1210       1444.111    234.111 
        3   1014       1043.783     29.783 
        4   1078       1103.18      25.18  
        5    954       1444.111    490.111 
        6    937        784.8     -152.2   
        7   2233       2041.611   -191.389 
        8   1472       1616.6      144.6   
        9   1205       1421.828    216.828 
       10   1146       1103.18     -42.82  
       11    624        619.286     -4.714 
       12   1039       1213.833    174.833 
       13    922        784.8     -137.2   
       14   1481       1525.261     44.261 
       15   1218       1421.828    203.828 
       16    756        784.8       28.8   
       17    952       1103.18     151.18  
       18    616        722        106     
       19    592        619.286     27.286 
       20    688        619.286    -68.714 
       21   1105       1444.111    339.111 
       22   2537       1103.18   -1433.82  
       23   1323       1181.2     -141.8   
       24   1651       1711.167     60.167 
       25   1046       1181.2      135.2   
        1    967       1099.925    132.925 
        2   1131       1099.925    -31.075 
        3   1455       1467.167     12.167 
        4   1608       1319.833   -288.167 
        5   1708       1830        122     
        6    896       1000.75     104.75  
        7   3596       2072.333  -1523.667 
        8   1034       1099.925     65.925 
        9   1390       2072.333    682.333 
       10   1184       1099.925    -84.075 
       11   2135       1830       -305     
       12   1604       1727.8      123.8   
       13    608        667.714     59.714 
       14   1306       2072.333    766.333 
       15   1247       1256.5        9.5   
       16   1527       1467.167    -59.833 
       17   4097       2072.333  -2024.667 
       18    670       1099.925    429.925 
       19   1381       1467.167     86.167 
       20   1537       2072.333    535.333 
       21    913       1099.925    186.925 
       22    947       1099.925    152.925 
       23   2124       1099.925  -1024.075 
       24    499       2072.333   1573.333 
       25   1412       2072.333    660.333 
        1   1414       1551.069    137.069 
        2   1492       1551.069     59.069 
        3   1205       2246.615   1041.615 
        4   1136       1108.103    -27.897 
        5   1576       1422.882   -153.118 
        6   1304       1551.069    247.069 
        7   1518       1551.069     33.069 
        8   1002       1108.103    106.103 
        9   1418       1551.069    133.069 
       10   3819       2246.615  -1572.385 
       11   1378       1551.069    173.069 
       12   1822       1551.069   -270.931 
       13   1145       1108.103    -36.897 
       14   1251       2246.615    995.615 
       15   1547       1468.3      -78.7   
       16    961       1108.103    147.103 
       17    730        760.75      30.75  
       18   1744       1797.333     53.333 
       19    928       1108.103    180.103 
       20   1556       1551.069     -4.931 
       21   1474       1551.069     77.069 
       22   4291       2246.615  -2044.385 
       23   2174       1797.333   -376.667 
       24   1431       1551.069    120.069 
       25   1702       1551.069   -150.931 
        1   1485       1545.768     60.768 
        2   1073        969.786   -103.214 
        3    931       1148.807    217.807 
        4   1457       1545.768     88.768 
        5   1250       1545.768    295.768 
        6   1935       1793.75    -141.25  
        7   1691       1545.768   -145.232 
        8   1367       1545.768    178.768 
        9    769        722.5      -46.5   
       10   1776       1945        169     
       11   1371       1545.768    174.768 
       12   1411       1545.768    134.768 
       13    935       1148.807    213.807 
       14   1673       1545.768   -127.232 
       15   1235       1148.807    -86.193 
       16   1991       1793.75    -197.25  
       17    564        722.5      158.5   
       18   1043       1148.807    105.807 
       19   1079       1148.807     69.807 
       20   1079       1148.807     69.807 
       21   1385       1148.807   -236.193 
       22    963       1148.807    185.807 
       23   1234       2153.571    919.571 
       24    665        722.5       57.5   
       25    944       1148.807    204.807 

=== Cross-validation ===
=== Summary ===

Correlation coefficient                  0.6565
Mean absolute error                    262.0065
Root mean squared error                456.0032
Relative absolute error                 63.7316 %
Root relative squared error             75.1233 %
Total Number of Instances              250     

